Language model created by QuickLM on Sun Mar 25 06:12:25 EDT 2018
Copyright (c) 1996-2010 Carnegie Mellon University and Alexander I. Rudnicky

The model is in standard ARPA format, designed by Doug Paul while he was at MITRE.

The code that was used to produce this language model is available in Open Source.
Please visit http://www.speech.cs.cmu.edu/tools/ for more information

The (fixed) discount mass is 0.5. The backoffs are computed using the ratio method.
This model based on a corpus of 24 sentences and 34 words

\data\
ngram 1=34
ngram 2=57
ngram 3=43

\1-grams:
-0.9379 </s> -0.3010
-0.9379 <s> -0.2478
-2.0170 BYE -0.2430
-2.3181 C -0.2947
-1.7160 CHANGE -0.2926
-2.3181 E -0.2989
-2.3181 EIGHT -0.2478
-2.3181 ELEVEN -0.2478
-2.3181 F -0.2947
-2.3181 FIFTEEN -0.2478
-2.3181 FILE -0.2478
-2.3181 FIVE -0.2478
-2.3181 FOUR -0.2478
-2.3181 FOURTEEN -0.2478
-2.3181 G -0.2947
-1.4150 HEY -0.2840
-1.7160 KEY -0.2926
-1.8409 MAJOR -0.2478
-1.4150 MIDI -0.2818
-2.3181 MINOR -0.2478
-2.3181 NINE -0.2478
-2.3181 ONE -0.2478
-2.0170 RECORDING -0.2478
-2.3181 SEVEN -0.2478
-2.3181 SIX -0.2478
-2.3181 START -0.2968
-2.3181 STOP -0.2968
-2.3181 TEN -0.2478
-2.3181 THIRTEEN -0.2478
-2.3181 THREE -0.2478
-2.3181 TWELVE -0.2478
-2.3181 TWO -0.2478
-2.3181 UPLOAD -0.2989
-2.3181 ZERO -0.2478

\2-grams:
-1.6812 <s> EIGHT 0.0000
-1.6812 <s> ELEVEN 0.0000
-1.6812 <s> FIFTEEN 0.0000
-1.6812 <s> FIVE 0.0000
-1.6812 <s> FOUR 0.0000
-1.6812 <s> FOURTEEN 0.0000
-0.7782 <s> HEY 0.0000
-1.6812 <s> NINE 0.0000
-1.6812 <s> ONE 0.0000
-1.6812 <s> SEVEN 0.0000
-1.6812 <s> SIX 0.0000
-1.6812 <s> TEN 0.0000
-1.6812 <s> THIRTEEN 0.0000
-1.6812 <s> THREE 0.0000
-1.6812 <s> TWELVE 0.0000
-1.6812 <s> TWO 0.0000
-1.6812 <s> ZERO 0.0000
-0.6021 BYE </s> -0.3010
-0.6021 BYE BYE -0.1761
-0.3010 C MAJOR 0.0000
-0.9031 CHANGE C 0.0000
-0.9031 CHANGE E 0.0000
-0.9031 CHANGE F 0.0000
-0.9031 CHANGE G 0.0000
-0.3010 E MINOR 0.0000
-0.3010 EIGHT </s> -0.3010
-0.3010 ELEVEN </s> -0.3010
-0.3010 F MAJOR 0.0000
-0.3010 FIFTEEN </s> -0.3010
-0.3010 FILE </s> -0.3010
-0.3010 FIVE </s> -0.3010
-0.3010 FOUR </s> -0.3010
-0.3010 FOURTEEN </s> -0.3010
-0.3010 G MAJOR 0.0000
-0.3010 HEY MIDI 0.0000
-0.3010 KEY CHANGE 0.0000
-0.3010 MAJOR </s> -0.3010
-1.2041 MIDI BYE -0.1761
-0.6021 MIDI KEY 0.0000
-1.2041 MIDI START 0.0000
-1.2041 MIDI STOP 0.0000
-1.2041 MIDI UPLOAD 0.0000
-0.3010 MINOR </s> -0.3010
-0.3010 NINE </s> -0.3010
-0.3010 ONE </s> -0.3010
-0.3010 RECORDING </s> -0.3010
-0.3010 SEVEN </s> -0.3010
-0.3010 SIX </s> -0.3010
-0.3010 START RECORDING 0.0000
-0.3010 STOP RECORDING 0.0000
-0.3010 TEN </s> -0.3010
-0.3010 THIRTEEN </s> -0.3010
-0.3010 THREE </s> -0.3010
-0.3010 TWELVE </s> -0.3010
-0.3010 TWO </s> -0.3010
-0.3010 UPLOAD FILE 0.0000
-0.3010 ZERO </s> -0.3010

\3-grams:
-0.3010 <s> EIGHT </s>
-0.3010 <s> ELEVEN </s>
-0.3010 <s> FIFTEEN </s>
-0.3010 <s> FIVE </s>
-0.3010 <s> FOUR </s>
-0.3010 <s> FOURTEEN </s>
-0.3010 <s> HEY MIDI
-0.3010 <s> NINE </s>
-0.3010 <s> ONE </s>
-0.3010 <s> SEVEN </s>
-0.3010 <s> SIX </s>
-0.3010 <s> TEN </s>
-0.3010 <s> THIRTEEN </s>
-0.3010 <s> THREE </s>
-0.3010 <s> TWELVE </s>
-0.3010 <s> TWO </s>
-0.3010 <s> ZERO </s>
-0.3010 BYE BYE </s>
-0.3010 C MAJOR </s>
-0.3010 CHANGE C MAJOR
-0.3010 CHANGE E MINOR
-0.3010 CHANGE F MAJOR
-0.3010 CHANGE G MAJOR
-0.3010 E MINOR </s>
-0.3010 F MAJOR </s>
-0.3010 G MAJOR </s>
-1.2041 HEY MIDI BYE
-0.6021 HEY MIDI KEY
-1.2041 HEY MIDI START
-1.2041 HEY MIDI STOP
-1.2041 HEY MIDI UPLOAD
-0.9031 KEY CHANGE C
-0.9031 KEY CHANGE E
-0.9031 KEY CHANGE F
-0.9031 KEY CHANGE G
-0.3010 MIDI BYE BYE
-0.3010 MIDI KEY CHANGE
-0.3010 MIDI START RECORDING
-0.3010 MIDI STOP RECORDING
-0.3010 MIDI UPLOAD FILE
-0.3010 START RECORDING </s>
-0.3010 STOP RECORDING </s>
-0.3010 UPLOAD FILE </s>

\end\
