Language model created by QuickLM on Sun Mar 25 09:51:04 EDT 2018
Copyright (c) 1996-2010 Carnegie Mellon University and Alexander I. Rudnicky

The model is in standard ARPA format, designed by Doug Paul while he was at MITRE.

The code that was used to produce this language model is available in Open Source.
Please visit http://www.speech.cs.cmu.edu/tools/ for more information

The (fixed) discount mass is 0.5. The backoffs are computed using the ratio method.
This model based on a corpus of 26 sentences and 37 words

\data\
ngram 1=37
ngram 2=62
ngram 3=48

\1-grams:
-0.9542 </s> -0.3010
-0.9542 <s> -0.2499
-2.3692 BASS -0.2499
-2.0682 BYE -0.2457
-1.6702 CHANGE -0.2414
-2.3692 DROP -0.2992
-2.3692 EE -0.2992
-2.3692 EFF -0.2954
-2.3692 EIGHT -0.2499
-2.3692 ELEVEN -0.2499
-2.3692 FIFTEEN -0.2499
-2.3692 FILE -0.2499
-2.3692 FIVE -0.2499
-2.3692 FOUR -0.2499
-2.3692 FOURTEEN -0.2499
-2.3692 GEE -0.2954
-1.3692 HEY -0.2821
-1.6702 KEY -0.2916
-1.8921 MAJOR -0.2499
-1.3692 MIDI -0.2801
-2.3692 MINOR -0.2499
-2.3692 NINE -0.2499
-2.3692 ONE -0.2499
-2.0682 RECORDING -0.2499
-2.3692 SEE -0.2954
-2.3692 SEVEN -0.2499
-2.3692 SIX -0.2499
-2.3692 START -0.2973
-2.3692 STOP -0.2973
-2.3692 TEN -0.2499
-2.3692 THE -0.2992
-2.3692 THIRTEEN -0.2499
-2.3692 THREE -0.2499
-2.3692 TWELVE -0.2499
-2.3692 TWO -0.2499
-2.3692 UPLOAD -0.2992
-2.3692 ZERO -0.2499

\2-grams:
-1.7160 <s> EIGHT 0.0000
-1.7160 <s> ELEVEN 0.0000
-1.7160 <s> FIFTEEN 0.0000
-1.7160 <s> FIVE 0.0000
-1.7160 <s> FOUR 0.0000
-1.7160 <s> FOURTEEN 0.0000
-0.7160 <s> HEY 0.0000
-1.7160 <s> NINE 0.0000
-1.7160 <s> ONE 0.0000
-1.7160 <s> SEVEN 0.0000
-1.7160 <s> SIX 0.0000
-1.7160 <s> TEN 0.0000
-1.7160 <s> THIRTEEN 0.0000
-1.7160 <s> THREE 0.0000
-1.7160 <s> TWELVE 0.0000
-1.7160 <s> TWO 0.0000
-1.7160 <s> ZERO 0.0000
-0.3010 BASS </s> -0.3010
-0.6021 BYE </s> -0.3010
-0.6021 BYE BYE -0.1761
-1.0000 CHANGE </s> -0.3010
-1.0000 CHANGE EE 0.0000
-1.0000 CHANGE EFF 0.0000
-1.0000 CHANGE GEE 0.0000
-1.0000 CHANGE SEE 0.0000
-0.3010 DROP THE 0.0000
-0.3010 EE MINOR 0.0000
-0.3010 EFF MAJOR 0.0000
-0.3010 EIGHT </s> -0.3010
-0.3010 ELEVEN </s> -0.3010
-0.3010 FIFTEEN </s> -0.3010
-0.3010 FILE </s> -0.3010
-0.3010 FIVE </s> -0.3010
-0.3010 FOUR </s> -0.3010
-0.3010 FOURTEEN </s> -0.3010
-0.3010 GEE MAJOR 0.0000
-0.3010 HEY MIDI 0.0000
-0.3010 KEY CHANGE 0.0000
-0.3010 MAJOR </s> -0.3010
-1.3010 MIDI BYE -0.1761
-1.3010 MIDI DROP 0.0000
-0.6021 MIDI KEY 0.0000
-1.3010 MIDI START 0.0000
-1.3010 MIDI STOP 0.0000
-1.3010 MIDI UPLOAD 0.0000
-0.3010 MINOR </s> -0.3010
-0.3010 NINE </s> -0.3010
-0.3010 ONE </s> -0.3010
-0.3010 RECORDING </s> -0.3010
-0.3010 SEE MAJOR 0.0000
-0.3010 SEVEN </s> -0.3010
-0.3010 SIX </s> -0.3010
-0.3010 START RECORDING 0.0000
-0.3010 STOP RECORDING 0.0000
-0.3010 TEN </s> -0.3010
-0.3010 THE BASS 0.0000
-0.3010 THIRTEEN </s> -0.3010
-0.3010 THREE </s> -0.3010
-0.3010 TWELVE </s> -0.3010
-0.3010 TWO </s> -0.3010
-0.3010 UPLOAD FILE 0.0000
-0.3010 ZERO </s> -0.3010

\3-grams:
-0.3010 <s> EIGHT </s>
-0.3010 <s> ELEVEN </s>
-0.3010 <s> FIFTEEN </s>
-0.3010 <s> FIVE </s>
-0.3010 <s> FOUR </s>
-0.3010 <s> FOURTEEN </s>
-0.3010 <s> HEY MIDI
-0.3010 <s> NINE </s>
-0.3010 <s> ONE </s>
-0.3010 <s> SEVEN </s>
-0.3010 <s> SIX </s>
-0.3010 <s> TEN </s>
-0.3010 <s> THIRTEEN </s>
-0.3010 <s> THREE </s>
-0.3010 <s> TWELVE </s>
-0.3010 <s> TWO </s>
-0.3010 <s> ZERO </s>
-0.3010 BYE BYE </s>
-0.3010 CHANGE EE MINOR
-0.3010 CHANGE EFF MAJOR
-0.3010 CHANGE GEE MAJOR
-0.3010 CHANGE SEE MAJOR
-0.3010 DROP THE BASS
-0.3010 EE MINOR </s>
-0.3010 EFF MAJOR </s>
-0.3010 GEE MAJOR </s>
-1.3010 HEY MIDI BYE
-1.3010 HEY MIDI DROP
-0.6021 HEY MIDI KEY
-1.3010 HEY MIDI START
-1.3010 HEY MIDI STOP
-1.3010 HEY MIDI UPLOAD
-1.0000 KEY CHANGE </s>
-1.0000 KEY CHANGE EE
-1.0000 KEY CHANGE EFF
-1.0000 KEY CHANGE GEE
-1.0000 KEY CHANGE SEE
-0.3010 MIDI BYE BYE
-0.3010 MIDI DROP THE
-0.3010 MIDI KEY CHANGE
-0.3010 MIDI START RECORDING
-0.3010 MIDI STOP RECORDING
-0.3010 MIDI UPLOAD FILE
-0.3010 SEE MAJOR </s>
-0.3010 START RECORDING </s>
-0.3010 STOP RECORDING </s>
-0.3010 THE BASS </s>
-0.3010 UPLOAD FILE </s>

\end\
